Language model created by QuickLM on Wed Oct  7 20:44:09 EDT 2015
Copyright (c) 1996-2010 Carnegie Mellon University and Alexander I. Rudnicky

The model is in standard ARPA format, designed by Doug Paul while he was at MITRE.

The code that was used to produce this language model is available in Open Source.
Please visit http://www.speech.cs.cmu.edu/tools/ for more information

The (fixed) discount mass is 0.5. The backoffs are computed using the ratio method.
This model based on a corpus of 13 sentences and 15 words

\data\
ngram 1=15
ngram 2=26
ngram 3=17

\1-grams:
-0.8206 </s> -0.3010
-0.8206 <s> -0.2299
-1.9345 AGAIN -0.2299
-1.6335 BURY -0.2803
-1.6335 CARD -0.2299
-1.9345 EASY -0.2299
-1.9345 GOOD -0.2299
-1.9345 HARD -0.2299
-1.9345 MARK -0.2299
-1.6335 NOTE -0.2299
-1.9345 PAUSE -0.2299
-1.9345 RESUME -0.2299
-1.6335 SUSPEND -0.2803
-1.9345 SYNCHRONIZE -0.2299
-1.9345 UNDO -0.2299

\2-grams:
-1.4150 <s> AGAIN 0.0000
-1.1139 <s> BURY 0.0000
-1.4150 <s> EASY 0.0000
-1.4150 <s> GOOD 0.0000
-1.4150 <s> HARD 0.0000
-1.4150 <s> MARK 0.0000
-1.4150 <s> PAUSE 0.0000
-1.4150 <s> RESUME 0.0000
-1.1139 <s> SUSPEND 0.0000
-1.4150 <s> SYNCHRONIZE 0.0000
-1.4150 <s> UNDO 0.0000
-0.3010 AGAIN </s> -0.3010
-0.6021 BURY CARD 0.0000
-0.6021 BURY NOTE 0.0000
-0.3010 CARD </s> -0.3010
-0.3010 EASY </s> -0.3010
-0.3010 GOOD </s> -0.3010
-0.3010 HARD </s> -0.3010
-0.3010 MARK </s> -0.3010
-0.3010 NOTE </s> -0.3010
-0.3010 PAUSE </s> -0.3010
-0.3010 RESUME </s> -0.3010
-0.6021 SUSPEND CARD 0.0000
-0.6021 SUSPEND NOTE 0.0000
-0.3010 SYNCHRONIZE </s> -0.3010
-0.3010 UNDO </s> -0.3010

\3-grams:
-0.3010 <s> AGAIN </s>
-0.6021 <s> BURY CARD
-0.6021 <s> BURY NOTE
-0.3010 <s> EASY </s>
-0.3010 <s> GOOD </s>
-0.3010 <s> HARD </s>
-0.3010 <s> MARK </s>
-0.3010 <s> PAUSE </s>
-0.3010 <s> RESUME </s>
-0.6021 <s> SUSPEND CARD
-0.6021 <s> SUSPEND NOTE
-0.3010 <s> SYNCHRONIZE </s>
-0.3010 <s> UNDO </s>
-0.3010 BURY CARD </s>
-0.3010 BURY NOTE </s>
-0.3010 SUSPEND CARD </s>
-0.3010 SUSPEND NOTE </s>

\end\
