Language model created by QuickLM on Thu Oct  8 14:35:41 EDT 2015
Copyright (c) 1996-2010 Carnegie Mellon University and Alexander I. Rudnicky

The model is in standard ARPA format, designed by Doug Paul while he was at MITRE.

The code that was used to produce this language model is available in Open Source.
Please visit http://www.speech.cs.cmu.edu/tools/ for more information

The (fixed) discount mass is 0.5. The backoffs are computed using the ratio method.
This model based on a corpus of 15 sentences and 17 words

\data\
ngram 1=17
ngram 2=30
ngram 3=19

\1-grams:
-0.8151 </s> -0.3010
-0.8151 <s> -0.2289
-1.9912 AGAIN -0.2289
-1.9912 ANSWER -0.2289
-1.6902 BURY -0.2829
-1.6902 CARD -0.2289
-1.9912 EASY -0.2289
-1.9912 GOOD -0.2289
-1.9912 HARD -0.2289
-1.9912 MARK -0.2289
-1.6902 NOTE -0.2289
-1.9912 PAUSE -0.2289
-1.9912 RESUME -0.2289
-1.9912 STAR -0.2289
-1.6902 SUSPEND -0.2829
-1.9912 SYNCHRONIZE -0.2289
-1.9912 UNDO -0.2289

\2-grams:
-1.4771 <s> AGAIN 0.0000
-1.4771 <s> ANSWER 0.0000
-1.1761 <s> BURY 0.0000
-1.4771 <s> EASY 0.0000
-1.4771 <s> GOOD 0.0000
-1.4771 <s> HARD 0.0000
-1.4771 <s> MARK 0.0000
-1.4771 <s> PAUSE 0.0000
-1.4771 <s> RESUME 0.0000
-1.4771 <s> STAR 0.0000
-1.1761 <s> SUSPEND 0.0000
-1.4771 <s> SYNCHRONIZE 0.0000
-1.4771 <s> UNDO 0.0000
-0.3010 AGAIN </s> -0.3010
-0.3010 ANSWER </s> -0.3010
-0.6021 BURY CARD 0.0000
-0.6021 BURY NOTE 0.0000
-0.3010 CARD </s> -0.3010
-0.3010 EASY </s> -0.3010
-0.3010 GOOD </s> -0.3010
-0.3010 HARD </s> -0.3010
-0.3010 MARK </s> -0.3010
-0.3010 NOTE </s> -0.3010
-0.3010 PAUSE </s> -0.3010
-0.3010 RESUME </s> -0.3010
-0.3010 STAR </s> -0.3010
-0.6021 SUSPEND CARD 0.0000
-0.6021 SUSPEND NOTE 0.0000
-0.3010 SYNCHRONIZE </s> -0.3010
-0.3010 UNDO </s> -0.3010

\3-grams:
-0.3010 <s> AGAIN </s>
-0.3010 <s> ANSWER </s>
-0.6021 <s> BURY CARD
-0.6021 <s> BURY NOTE
-0.3010 <s> EASY </s>
-0.3010 <s> GOOD </s>
-0.3010 <s> HARD </s>
-0.3010 <s> MARK </s>
-0.3010 <s> PAUSE </s>
-0.3010 <s> RESUME </s>
-0.3010 <s> STAR </s>
-0.6021 <s> SUSPEND CARD
-0.6021 <s> SUSPEND NOTE
-0.3010 <s> SYNCHRONIZE </s>
-0.3010 <s> UNDO </s>
-0.3010 BURY CARD </s>
-0.3010 BURY NOTE </s>
-0.3010 SUSPEND CARD </s>
-0.3010 SUSPEND NOTE </s>

\end\
